{
  "layers": [
    [
      {
        "weights": [
          0.3130075144189217,
          -1.7376670766782185,
          -2.0553758259789583,
          0.6374531187286164,
          -0.8114457071812293,
          -0.04810063858552935
        ],
        "bias": 1.299030451711932
      },
      {
        "weights": [
          0.5249069317434061,
          -1.0727030783566882,
          -0.8145956451294234,
          -0.35351024094529127,
          -0.3677557246716268,
          -0.029892455877625554
        ],
        "bias": 1.1487966475124645
      },
      {
        "weights": [
          -0.8710803506710473,
          0.9932703302563094,
          -0.23410328604853964,
          -1.0879152527665301,
          -0.35774333598720603,
          -1.310941336546822
        ],
        "bias": 0.06632114434926731
      },
      {
        "weights": [
          -1.1216624007950555,
          -0.22735360110554115,
          -0.11800094264941727,
          0.5713136455771177,
          0.7779207619972845,
          1.5385700747484035
        ],
        "bias": 0.3270753279217119
      },
      {
        "weights": [
          -0.7857303998969046,
          1.1417349990949364,
          1.0323686394205491,
          -1.6096739201802486,
          0.8044175420098647,
          -0.4663798067086866
        ],
        "bias": 0.9913474632021049
      },
      {
        "weights": [
          1.829785165587713,
          -0.27494854243847233,
          0.8544991216065887,
          -0.6300606048340496,
          -1.1306154164076314,
          1.2784985368164574
        ],
        "bias": 0.9149139947714
      },
      {
        "weights": [
          0.10771746554149127,
          0.49031161523033023,
          0.341676555285235,
          -1.2403371156841088,
          -1.6546206511702812,
          -0.3732514415967216
        ],
        "bias": 0.9172030436701148
      },
      {
        "weights": [
          -1.1565033928477657,
          1.008193615370951,
          1.010597036918548,
          1.421807352433716,
          -0.22201724564382094,
          -0.7505062453081542
        ],
        "bias": 0.10997375733322137
      },
      {
        "weights": [
          1.225356404898751,
          0.48998718214420417,
          0.0693747820574685,
          -2.1352325706379576,
          -0.26612804517225574,
          1.4771109643517666
        ],
        "bias": 0.9348655159761772
      },
      {
        "weights": [
          -0.7139605759428085,
          0.04104849250259228,
          -0.6047014192350454,
          -1.3927863718560864,
          1.5444818300025114,
          1.5029808374332159
        ],
        "bias": -1.3681812138820693
      },
      {
        "weights": [
          2.898108702545393,
          0.34071972243654625,
          -0.17321023643625844,
          1.3814750627542682,
          -0.6366142051212641,
          -0.9812228236914836
        ],
        "bias": 2.5123754782813044
      },
      {
        "weights": [
          1.1695570627244791,
          -0.44287544084499,
          0.08101073611214232,
          0.5993392688379802,
          0.18547236943115056,
          0.35941282328418633
        ],
        "bias": -0.41076460090324823
      }
    ],
    [
      {
        "weights": [
          0.4682403921161089,
          0.8637283984079693,
          -1.8825387088036323,
          1.4250911248956224,
          1.0159677202476367,
          2.066897675228229,
          -1.274313670705207,
          -1.5838497940496996,
          1.1711983863823803,
          -0.6252148004067261,
          2.965506355042998,
          -0.7620638699780574
        ],
        "bias": 0.06887927187656852
      },
      {
        "weights": [
          0.05155721915978746,
          1.1098101579484851,
          -0.9163234251063436,
          -1.065050203410327,
          0.10037953122589835,
          1.4847502112948503,
          -0.2764486033602746,
          0.8999967549990567,
          0.2388565923922446,
          0.953876030688551,
          0.7083131062629362,
          -0.5307963588927262
        ],
        "bias": 0.8749659914269763
      }
    ]
  ],
  "structure": [
    6,
    12,
    2
  ],
  "fitness": 260.5
}