{
  "structure": [
    6,
    12,
    2
  ],
  "fitness": null,
  "layers": [
    [
      {
        "weights": [
          0.3483510695324045,
          0.4102370690817455,
          -0.0986162375995303,
          1.3903616075994165,
          0.8039690332817501,
          0.6402949552670668
        ],
        "bias": 2.4519291119190267
      },
      {
        "weights": [
          37.21003074481005,
          0.9830664334269273,
          0.792889020512894,
          0.7975690463569245,
          -0.745046717331129,
          -0.31985604247263555
        ],
        "bias": 37.15232922925624
      },
      {
        "weights": [
          26.069339354796927,
          0.5584321412026589,
          -0.4549729901042408,
          -0.8400624960401522,
          0.17146908488121781,
          0.04531438777183233
        ],
        "bias": 25.16351295375134
      },
      {
        "weights": [
          15.690902278379028,
          0.7614762686690941,
          -0.5329484972790919,
          -0.8126239191278154,
          1.2794335668608126,
          0.7156655608153287
        ],
        "bias": 16.342361461141497
      },
      {
        "weights": [
          -0.7236301443130472,
          -0.44428418843780465,
          -0.4419482879543009,
          -0.4291370869590719,
          1.2284854060510157,
          0.5784241044656211
        ],
        "bias": 1.6030458065306674
      },
      {
        "weights": [
          -0.5691546237481964,
          0.783551448502662,
          -0.8220937499415123,
          -0.16911475310618748,
          1.6592565114487734,
          1.110248269325408
        ],
        "bias": 2.1140965252488555
      },
      {
        "weights": [
          14.463045279128599,
          0.151905224391355,
          0.3214854001487809,
          -0.5308026149648147,
          1.3195273590534509,
          -0.0970710838719117
        ],
        "bias": 15.156992324835867
      },
      {
        "weights": [
          0.08408092884585522,
          -0.20455197439102465,
          1.1759497332795106,
          1.5150090117142376,
          0.1577063950727141,
          1.2131261495745322
        ],
        "bias": 2.677110283154621
      },
      {
        "weights": [
          5.190249581489217,
          0.5442953966907652,
          -0.29739626083285026,
          -0.5226105703223041,
          -0.5574789373024731,
          -0.08916673694722045
        ],
        "bias": 6.04020124548096
      },
      {
        "weights": [
          -1.031694504523173,
          -0.15614635422536133,
          -0.9456854355839968,
          0.84842840236151,
          1.8914388254872478,
          1.169144359977622
        ],
        "bias": 2.5624871802354687
      },
      {
        "weights": [
          -0.4538878533136993,
          0.9475870707209758,
          0.7403725192715321,
          1.3054756622261248,
          -0.86439683056774,
          0.715070502384881
        ],
        "bias": 1.6980663684977917
      },
      {
        "weights": [
          3.4671571232683958,
          -0.7819348580646438,
          0.678739309177231,
          1.196982491457503,
          1.982372166251265,
          0.37637433387469393
        ],
        "bias": 5.119978744193178
      }
    ],
    [
      {
        "weights": [
          1.6505055245715805,
          12.576921342400457,
          18.899925064118207,
          6.555551258997331,
          0.8374639216709177,
          0.4256845431583675,
          6.310352426859286,
          3.5791651722751716,
          3.605011701432676,
          0.8041414739024965,
          0.6343379900647116,
          3.5961845875053102
        ],
        "bias": 25.268762381941446
      },
      {
        "weights": [
          -1.8174953532104883,
          -0.4779412088891376,
          -0.04422321880180334,
          -1.4909813681676756,
          -1.5754647278028624,
          -2.7544470809526573,
          -1.6030979099915554,
          -3.470678715773523,
          0.5891219870374843,
          -2.484671090165201,
          -1.9835918387313343,
          -2.0880774648414038
        ],
        "bias": -5.805901317363182
      }
    ]
  ]
}