{
  "layers": [
    [
      {
        "weights": [
          0.5746949487078343,
          1.6142778904057682,
          0.04021407339874492,
          -1.2998536805186724,
          -0.3427823967480935,
          0.7922060330009956
        ],
        "bias": 0.5972993640404718
      },
      {
        "weights": [
          -0.0449937436286546,
          -0.2620850919990354,
          0.1534586263632803,
          -0.9623147529588185,
          -1.219719705341217,
          1.0909132637028676
        ],
        "bias": 1.1288062125762253
      },
      {
        "weights": [
          -1.3189018415757936,
          0.47977030101929097,
          -0.004204476464556142,
          0.2208869268472412,
          0.8764039106601093,
          1.185930291121085
        ],
        "bias": 0.4301766830364985
      },
      {
        "weights": [
          0.48435813913411085,
          0.2873832610208063,
          -0.7876144775807636,
          -0.9956069994341683,
          0.15433884637114167,
          -0.9167253914530356
        ],
        "bias": 0.5857360526661655
      },
      {
        "weights": [
          -0.5073961005190212,
          -0.6612742906858753,
          -0.16719581118594432,
          -0.13013291802193236,
          -0.8322004635081847,
          0.7269354606817212
        ],
        "bias": -0.9334938163925482
      },
      {
        "weights": [
          -0.5107220190505546,
          -0.2590087606508926,
          1.4263225696440829,
          -1.247440105069072,
          -0.3714235076672422,
          0.9098949721027643
        ],
        "bias": -0.02943744774023252
      },
      {
        "weights": [
          -1.7379499124190734,
          -1.0703810665085685,
          -0.31069201762643656,
          -0.7868441021279238,
          1.3120402352223126,
          0.0486350859677358
        ],
        "bias": 0.29399901578061416
      },
      {
        "weights": [
          -0.2528617370892965,
          -0.6200148157950652,
          -0.03456186421509512,
          -0.05488717817317406,
          0.2820046910867156,
          0.5825657915880279
        ],
        "bias": -0.018638690428323404
      },
      {
        "weights": [
          -0.8856573801583711,
          0.8886246119505485,
          1.2107493167488157,
          0.5796062206260659,
          -0.879652982282975,
          1.0735883851009
        ],
        "bias": 0.337311084037458
      },
      {
        "weights": [
          -0.016497741331812282,
          0.8978465168094394,
          -0.16166371166200616,
          0.41667896088028483,
          -0.7379401716033233,
          0.7800070058366039
        ],
        "bias": 0.18686193211226224
      },
      {
        "weights": [
          -0.0647558222983746,
          -0.6492417675286085,
          0.1328531948103642,
          0.35513047074475435,
          1.2156475078110727,
          -0.4180464627381425
        ],
        "bias": -0.1501307047374561
      },
      {
        "weights": [
          -0.19804342287267612,
          -0.8358845197310398,
          -0.39502842142208233,
          0.035206213950264305,
          0.20501518237081146,
          -1.3361748784612064
        ],
        "bias": 0.6604976089275346
      }
    ],
    [
      {
        "weights": [
          0.19208145021808368,
          1.2810545842406538,
          -0.5554019255925225,
          0.9459416018985494,
          -1.5413990771902226,
          -0.6061097887010063,
          -0.012397448740012057,
          0.41590249611355634,
          -1.3276825031800077,
          -0.7777766989644409,
          -0.7213864889682509,
          1.1541891131442201
        ],
        "bias": 0.2058691537726664
      },
      {
        "weights": [
          -0.01549698555192236,
          -0.314777315286894,
          0.2838085084057294,
          -1.0416850001460871,
          -0.4179742639957962,
          -1.139781789712706,
          0.9140230638331508,
          -0.03508230251770092,
          0.41494563856379446,
          -0.007300719362034011,
          0.16514038019211846,
          -0.6548928749588144
        ],
        "bias": -0.6020981972221493
      }
    ]
  ],
  "structure": [
    6,
    12,
    2
  ],
  "fitness": 744.5
}